
\data\
ngram 1=10
ngram 2=14
ngram 3=15

\1-grams:
-99	<s>	-0.7781513
-0.7160033	</s>
-0.5698753	the	-0.5228787
-1.113943	cat	-0.4771213
-0.937852	sat	-0.39794
-0.937852	dog	-0.39794
-1.113943	barked	-0.30103
-1.414973	at	-0.30103
-1.113943	TV	-0.4771213
-1.414973	on	-0.30103

\2-grams:
-0.05640403	<s> the	-0.5440679
-0.6515454	the cat	-0.4771213
-0.4754541	the dog	-0.39794
-0.6515454	the TV	-0.4771213
-0.1517319	cat sat	-0.30103
-0.3215517	sat </s>
-0.6667853	sat on	-0.30103
-0.6087933	dog sat	-0.30103
-0.3657553	dog barked	-0.30103
-0.4607308	barked </s>
-0.5698753	barked at	-0.30103
-0.1974894	at the	-0.30103
-0.1362197	TV </s>
-0.1974894	on the	-0.30103

\3-grams:
-0.4566143	<s> the cat
-0.280523	<s> the dog
-0.0449334	the cat sat
-0.5251116	the dog sat
-0.2423704	the dog barked
-0.04083625	the TV </s>
-0.3111696	cat sat </s>
-0.4464904	cat sat on
-0.08761441	sat on the
-0.1316721	dog sat </s>
-0.3735807	dog barked </s>
-0.4149734	dog barked at
-0.08761441	barked at the
-0.2135762	at the TV
-0.2135762	on the TV

\end\
